digraph Tree {
node [shape=box, style="rounded", color="black", fontname=helvetica] ;
edge [fontname=helvetica] ;
0 [label="50 <= 0.0\ngini = 0.5\nsamples = 92\nvalue = [64, 86]"] ;
1 [label="52 <= 0.0\ngini = 0.3\nsamples = 28\nvalue = [36, 9]"] ;
0 -> 1 [labeldistance=2.5, labelangle=45, headlabel="True"] ;
2 [label="13 <= 0.3\ngini = 0.2\nsamples = 26\nvalue = [36, 4]"] ;
1 -> 2 ;
3 [label="gini = 0.0\nsamples = 17\nvalue = [29, 0]"] ;
2 -> 3 ;
4 [label="gini = 0.5\nsamples = 9\nvalue = [7, 4]"] ;
2 -> 4 ;
5 [label="gini = 0.0\nsamples = 2\nvalue = [0, 5]"] ;
1 -> 5 ;
6 [label="9 <= 0.1\ngini = 0.4\nsamples = 64\nvalue = [28, 77]"] ;
0 -> 6 [labeldistance=2.5, labelangle=-45, headlabel="False"] ;
7 [label="43 <= 0.2\ngini = 0.5\nsamples = 19\nvalue = [19, 17]"] ;
6 -> 7 ;
8 [label="gini = 0.3\nsamples = 10\nvalue = [16, 3]"] ;
7 -> 8 ;
9 [label="gini = 0.3\nsamples = 9\nvalue = [3, 14]"] ;
7 -> 9 ;
10 [label="47 <= 0.1\ngini = 0.2\nsamples = 45\nvalue = [9, 60]"] ;
6 -> 10 ;
11 [label="gini = 0.5\nsamples = 9\nvalue = [5, 4]"] ;
10 -> 11 ;
12 [label="gini = 0.1\nsamples = 36\nvalue = [4, 56]"] ;
10 -> 12 ;
}